digraph Tree {
node [shape=box, style="filled", color="black"] ;
0 [label="Sex <= 0.5\nentropy = 0.967\nsamples = 665\nvalue = [403, 262]", fillcolor="#f6d3ba"] ;
1 [label="Age <= 13.0\nentropy = 0.713\nsamples = 430\nvalue = [346, 84]", fillcolor="#eba069"] ;
0 -> 1 [labeldistance=2.5, labelangle=45, headlabel="True"] ;
5 [label="Siblings/Spouses Aboard <= 2.5\nentropy = 0.948\nsamples = 30\nvalue = [11, 19]", fillcolor="#acd6f4"] ;
1 -> 5 ;
9 [label="entropy = 0.297\nsamples = 19\nvalue = [1, 18]", fillcolor="#44a2e6"] ;
5 -> 9 ;
10 [label="rand2 <= 18.5\nentropy = 0.439\nsamples = 11\nvalue = [10, 1]", fillcolor="#e88e4d"] ;
5 -> 10 ;
29 [label="entropy = 0.0\nsamples = 10\nvalue = [10, 0]", fillcolor="#e58139"] ;
10 -> 29 ;
30 [label="entropy = 0.0\nsamples = 1\nvalue = [0, 1]", fillcolor="#399de5"] ;
10 -> 30 ;
6 [label="Fare <= 26.144\nentropy = 0.64\nsamples = 400\nvalue = [335, 65]", fillcolor="#ea995f"] ;
1 -> 6 ;
7 [label="rand3 <= 27.5\nentropy = 0.482\nsamples = 298\nvalue = [267, 31]", fillcolor="#e89050"] ;
6 -> 7 ;
37 [label="Fare <= 13.25\nentropy = 0.379\nsamples = 204\nvalue = [189, 15]", fillcolor="#e78b49"] ;
7 -> 37 ;
39 [label="rand1 <= 8.5\nentropy = 0.438\nsamples = 166\nvalue = [151, 15]", fillcolor="#e88e4d"] ;
37 -> 39 ;
41 [label="entropy = 0.337\nsamples = 144\nvalue = [135, 9]", fillcolor="#e78946"] ;
39 -> 41 ;
42 [label="entropy = 0.845\nsamples = 22\nvalue = [16, 6]", fillcolor="#efb083"] ;
39 -> 42 ;
40 [label="entropy = 0.0\nsamples = 38\nvalue = [38, 0]", fillcolor="#e58139"] ;
37 -> 40 ;
38 [label="Fare <= 7.763\nentropy = 0.658\nsamples = 94\nvalue = [78, 16]", fillcolor="#ea9b62"] ;
7 -> 38 ;
43 [label="rand2 <= 10.5\nentropy = 0.222\nsamples = 28\nvalue = [27, 1]", fillcolor="#e68640"] ;
38 -> 43 ;
45 [label="entropy = 0.0\nsamples = 1\nvalue = [0, 1]", fillcolor="#399de5"] ;
43 -> 45 ;
46 [label="entropy = 0.0\nsamples = 27\nvalue = [27, 0]", fillcolor="#e58139"] ;
43 -> 46 ;
44 [label="entropy = 0.773\nsamples = 66\nvalue = [51, 15]", fillcolor="#eda673"] ;
38 -> 44 ;
8 [label="Fare <= 30.598\nentropy = 0.918\nsamples = 102\nvalue = [68, 34]", fillcolor="#f2c09c"] ;
6 -> 8 ;
13 [label="Siblings/Spouses Aboard <= 0.5\nentropy = 0.978\nsamples = 29\nvalue = [12, 17]", fillcolor="#c5e2f7"] ;
8 -> 13 ;
21 [label="Age <= 53.5\nentropy = 0.904\nsamples = 25\nvalue = [8, 17]", fillcolor="#96cbf1"] ;
13 -> 21 ;
31 [label="entropy = 0.722\nsamples = 20\nvalue = [4, 16]", fillcolor="#6ab6ec"] ;
21 -> 31 ;
32 [label="entropy = 0.722\nsamples = 5\nvalue = [4, 1]", fillcolor="#eca06a"] ;
21 -> 32 ;
22 [label="entropy = 0.0\nsamples = 4\nvalue = [4, 0]", fillcolor="#e58139"] ;
13 -> 22 ;
14 [label="Age <= 49.5\nentropy = 0.783\nsamples = 73\nvalue = [56, 17]", fillcolor="#eda775"] ;
8 -> 14 ;
17 [label="rand1 <= 3.5\nentropy = 0.873\nsamples = 58\nvalue = [41, 17]", fillcolor="#f0b58b"] ;
14 -> 17 ;
19 [label="entropy = 0.0\nsamples = 11\nvalue = [11, 0]", fillcolor="#e58139"] ;
17 -> 19 ;
20 [label="entropy = 0.944\nsamples = 47\nvalue = [30, 17]", fillcolor="#f4c8a9"] ;
17 -> 20 ;
18 [label="entropy = 0.0\nsamples = 15\nvalue = [15, 0]", fillcolor="#e58139"] ;
14 -> 18 ;
2 [label="Pclass <= 2.5\nentropy = 0.799\nsamples = 235\nvalue = [57, 178]", fillcolor="#78bced"] ;
0 -> 2 [labeldistance=2.5, labelangle=-45, headlabel="False"] ;
3 [label="Fare <= 28.856\nentropy = 0.351\nsamples = 136\nvalue = [9, 127]", fillcolor="#47a4e7"] ;
2 -> 3 ;
33 [label="entropy = 0.563\nsamples = 53\nvalue = [7, 46]", fillcolor="#57ace9"] ;
3 -> 33 ;
34 [label="Age <= 2.5\nentropy = 0.164\nsamples = 83\nvalue = [2, 81]", fillcolor="#3e9fe6"] ;
3 -> 34 ;
35 [label="entropy = 0.0\nsamples = 1\nvalue = [1, 0]", fillcolor="#e58139"] ;
34 -> 35 ;
36 [label="entropy = 0.095\nsamples = 82\nvalue = [1, 81]", fillcolor="#3b9ee5"] ;
34 -> 36 ;
4 [label="Fare <= 23.35\nentropy = 0.999\nsamples = 99\nvalue = [48, 51]", fillcolor="#f3f9fd"] ;
2 -> 4 ;
11 [label="rand2 <= 17.5\nentropy = 0.956\nsamples = 77\nvalue = [29, 48]", fillcolor="#b1d8f5"] ;
4 -> 11 ;
15 [label="entropy = 0.838\nsamples = 56\nvalue = [15, 41]", fillcolor="#81c1ef"] ;
11 -> 15 ;
16 [label="Fare <= 15.973\nentropy = 0.918\nsamples = 21\nvalue = [14, 7]", fillcolor="#f2c09c"] ;
11 -> 16 ;
25 [label="Fare <= 7.821\nentropy = 0.764\nsamples = 18\nvalue = [14, 4]", fillcolor="#eca572"] ;
16 -> 25 ;
27 [label="entropy = 0.985\nsamples = 7\nvalue = [3, 4]", fillcolor="#cee6f8"] ;
25 -> 27 ;
28 [label="entropy = 0.0\nsamples = 11\nvalue = [11, 0]", fillcolor="#e58139"] ;
25 -> 28 ;
26 [label="entropy = 0.0\nsamples = 3\nvalue = [0, 3]", fillcolor="#399de5"] ;
16 -> 26 ;
12 [label="rand2 <= 12.5\nentropy = 0.575\nsamples = 22\nvalue = [19, 3]", fillcolor="#e99558"] ;
4 -> 12 ;
23 [label="entropy = 0.985\nsamples = 7\nvalue = [4, 3]", fillcolor="#f8e0ce"] ;
12 -> 23 ;
24 [label="entropy = 0.0\nsamples = 15\nvalue = [15, 0]", fillcolor="#e58139"] ;
12 -> 24 ;
}