digraph Tree {
node [shape=box, style="filled", color="black"] ;
0 [label="Sex <= 0.5\nentropy = 0.967\nsamples = 665\nvalue = [403, 262]", fillcolor="#f6d3ba"] ;
1 [label="Age <= 13.0\nentropy = 0.713\nsamples = 430\nvalue = [346, 84]", fillcolor="#eba069"] ;
0 -> 1 [labeldistance=2.5, labelangle=45, headlabel="True"] ;
5 [label="Siblings/Spouses Aboard <= 2.5\nentropy = 0.948\nsamples = 30\nvalue = [11, 19]", fillcolor="#acd6f4"] ;
1 -> 5 ;
9 [label="Parents/Children Aboard <= 0.5\nentropy = 0.297\nsamples = 19\nvalue = [1, 18]", fillcolor="#44a2e6"] ;
5 -> 9 ;
31 [label="entropy = 1.0\nsamples = 2\nvalue = [1, 1]", fillcolor="#ffffff"] ;
9 -> 31 ;
32 [label="entropy = 0.0\nsamples = 17\nvalue = [0, 17]", fillcolor="#399de5"] ;
9 -> 32 ;
10 [label="entropy = 0.439\nsamples = 11\nvalue = [10, 1]", fillcolor="#e88e4d"] ;
5 -> 10 ;
6 [label="Fare <= 26.144\nentropy = 0.64\nsamples = 400\nvalue = [335, 65]", fillcolor="#ea995f"] ;
1 -> 6 ;
7 [label="Age <= 32.5\nentropy = 0.482\nsamples = 298\nvalue = [267, 31]", fillcolor="#e89050"] ;
6 -> 7 ;
35 [label="Age <= 28.75\nentropy = 0.556\nsamples = 201\nvalue = [175, 26]", fillcolor="#e99456"] ;
7 -> 35 ;
45 [label="entropy = 0.48\nsamples = 164\nvalue = [147, 17]", fillcolor="#e89050"] ;
35 -> 45 ;
46 [label="entropy = 0.8\nsamples = 37\nvalue = [28, 9]", fillcolor="#edaa79"] ;
35 -> 46 ;
36 [label="Fare <= 7.91\nentropy = 0.293\nsamples = 97\nvalue = [92, 5]", fillcolor="#e68844"] ;
7 -> 36 ;
37 [label="entropy = 0.0\nsamples = 35\nvalue = [35, 0]", fillcolor="#e58139"] ;
36 -> 37 ;
38 [label="Fare <= 13.25\nentropy = 0.404\nsamples = 62\nvalue = [57, 5]", fillcolor="#e78c4a"] ;
36 -> 38 ;
39 [label="entropy = 0.581\nsamples = 36\nvalue = [31, 5]", fillcolor="#e99559"] ;
38 -> 39 ;
40 [label="entropy = 0.0\nsamples = 26\nvalue = [26, 0]", fillcolor="#e58139"] ;
38 -> 40 ;
8 [label="Fare <= 30.598\nentropy = 0.918\nsamples = 102\nvalue = [68, 34]", fillcolor="#f2c09c"] ;
6 -> 8 ;
13 [label="Siblings/Spouses Aboard <= 0.5\nentropy = 0.978\nsamples = 29\nvalue = [12, 17]", fillcolor="#c5e2f7"] ;
8 -> 13 ;
17 [label="Age <= 53.5\nentropy = 0.904\nsamples = 25\nvalue = [8, 17]", fillcolor="#96cbf1"] ;
13 -> 17 ;
23 [label="entropy = 0.722\nsamples = 20\nvalue = [4, 16]", fillcolor="#6ab6ec"] ;
17 -> 23 ;
24 [label="Age <= 72.0\nentropy = 0.722\nsamples = 5\nvalue = [4, 1]", fillcolor="#eca06a"] ;
17 -> 24 ;
33 [label="entropy = 0.0\nsamples = 4\nvalue = [4, 0]", fillcolor="#e58139"] ;
24 -> 33 ;
34 [label="entropy = 0.0\nsamples = 1\nvalue = [0, 1]", fillcolor="#399de5"] ;
24 -> 34 ;
18 [label="entropy = 0.0\nsamples = 4\nvalue = [4, 0]", fillcolor="#e58139"] ;
13 -> 18 ;
14 [label="Age <= 49.5\nentropy = 0.783\nsamples = 73\nvalue = [56, 17]", fillcolor="#eda775"] ;
8 -> 14 ;
15 [label="Fare <= 379.925\nentropy = 0.873\nsamples = 58\nvalue = [41, 17]", fillcolor="#f0b58b"] ;
14 -> 15 ;
29 [label="entropy = 0.838\nsamples = 56\nvalue = [41, 15]", fillcolor="#efaf81"] ;
15 -> 29 ;
30 [label="entropy = 0.0\nsamples = 2\nvalue = [0, 2]", fillcolor="#399de5"] ;
15 -> 30 ;
16 [label="entropy = 0.0\nsamples = 15\nvalue = [15, 0]", fillcolor="#e58139"] ;
14 -> 16 ;
2 [label="Pclass <= 2.5\nentropy = 0.799\nsamples = 235\nvalue = [57, 178]", fillcolor="#78bced"] ;
0 -> 2 [labeldistance=2.5, labelangle=-45, headlabel="False"] ;
3 [label="Fare <= 28.856\nentropy = 0.351\nsamples = 136\nvalue = [9, 127]", fillcolor="#47a4e7"] ;
2 -> 3 ;
25 [label="entropy = 0.563\nsamples = 53\nvalue = [7, 46]", fillcolor="#57ace9"] ;
3 -> 25 ;
26 [label="Age <= 2.5\nentropy = 0.164\nsamples = 83\nvalue = [2, 81]", fillcolor="#3e9fe6"] ;
3 -> 26 ;
27 [label="entropy = 0.0\nsamples = 1\nvalue = [1, 0]", fillcolor="#e58139"] ;
26 -> 27 ;
28 [label="entropy = 0.095\nsamples = 82\nvalue = [1, 81]", fillcolor="#3b9ee5"] ;
26 -> 28 ;
4 [label="Fare <= 23.35\nentropy = 0.999\nsamples = 99\nvalue = [48, 51]", fillcolor="#f3f9fd"] ;
2 -> 4 ;
11 [label="Age <= 6.5\nentropy = 0.956\nsamples = 77\nvalue = [29, 48]", fillcolor="#b1d8f5"] ;
4 -> 11 ;
19 [label="entropy = 0.0\nsamples = 7\nvalue = [0, 7]", fillcolor="#399de5"] ;
11 -> 19 ;
20 [label="Fare <= 8.083\nentropy = 0.979\nsamples = 70\nvalue = [29, 41]", fillcolor="#c5e2f7"] ;
11 -> 20 ;
21 [label="entropy = 0.822\nsamples = 35\nvalue = [9, 26]", fillcolor="#7ebfee"] ;
20 -> 21 ;
22 [label="Age <= 23.0\nentropy = 0.985\nsamples = 35\nvalue = [20, 15]", fillcolor="#f8e0ce"] ;
20 -> 22 ;
41 [label="entropy = 0.75\nsamples = 14\nvalue = [11, 3]", fillcolor="#eca36f"] ;
22 -> 41 ;
42 [label="Fare <= 9.219\nentropy = 0.985\nsamples = 21\nvalue = [9, 12]", fillcolor="#cee6f8"] ;
22 -> 42 ;
43 [label="entropy = 0.0\nsamples = 3\nvalue = [3, 0]", fillcolor="#e58139"] ;
42 -> 43 ;
44 [label="entropy = 0.918\nsamples = 18\nvalue = [6, 12]", fillcolor="#9ccef2"] ;
42 -> 44 ;
12 [label="entropy = 0.575\nsamples = 22\nvalue = [19, 3]", fillcolor="#e99558"] ;
4 -> 12 ;
}