digraph Tree {
node [shape=box, style="filled", color="black"] ;
0 [label="Sex <= 0.5\nentropy = 0.956\nsamples = 665\nvalue = [414, 251]", fillcolor="#f5cdb1"] ;
1 [label="Pclass <= 1.5\nentropy = 0.702\nsamples = 426\nvalue = [345, 81]", fillcolor="#eb9f67"] ;
0 -> 1 [labeldistance=2.5, labelangle=45, headlabel="True"] ;
5 [label="entropy = 0.949\nsamples = 95\nvalue = [60, 35]", fillcolor="#f4caac"] ;
1 -> 5 ;
6 [label="Age <= 13.0\nentropy = 0.582\nsamples = 331\nvalue = [285, 46]", fillcolor="#e99559"] ;
1 -> 6 ;
7 [label="entropy = 0.999\nsamples = 27\nvalue = [13, 14]", fillcolor="#f1f8fd"] ;
6 -> 7 ;
8 [label="entropy = 0.485\nsamples = 304\nvalue = [272, 32]", fillcolor="#e89050"] ;
6 -> 8 ;
2 [label="Pclass <= 2.5\nentropy = 0.867\nsamples = 239\nvalue = [69, 170]", fillcolor="#89c5f0"] ;
0 -> 2 [labeldistance=2.5, labelangle=-45, headlabel="False"] ;
3 [label="entropy = 0.363\nsamples = 130\nvalue = [9, 121]", fillcolor="#48a4e7"] ;
2 -> 3 ;
4 [label="entropy = 0.993\nsamples = 109\nvalue = [60, 49]", fillcolor="#fae8db"] ;
2 -> 4 ;
}